{"b": [0, 1, 2, 3, 4], "W": [[[[-0.10838401317596436, -0.05402589961886406, 0.10110075771808624], [0.12591774761676788, 0.29574304819107056, -0.23564276099205017], [-0.1440967470407486, -0.37075942754745483, 0.05509476736187935], [0.32141751050949097, -0.20417316257953644, -0.11252500116825104]], [[-0.2800631523132324, 0.18114595115184784, -0.13097287714481354], [0.13209503889083862, -0.2615979313850403, -0.15089169144630432], [-0.08614233881235123, -0.40111619234085083, 0.2336682826280594], [0.12931467592716217, -0.039519257843494415, -0.3355552554130554]]], [[[-0.13360434770584106, 0.43139538168907166, -0.15031294524669647], [0.0040714251808822155, -0.07726705074310303, -0.430247962474823], [0.13844110071659088, 0.14635170996189117, 0.13068237900733948], [0.07942403852939606, -0.15294595062732697, -0.05435878410935402]], [[0.4218920171260834, 0.19512824714183807, 0.2439895123243332], [-0.41721072793006897, -0.2770595848560333, -0.1322629153728485], [0.21041040122509003, 0.008675208315253258, -0.4056079387664795], [0.07731789350509644, 0.2874554991722107, -0.296522855758667]]], [[[-0.310880184173584, -0.14597554504871368, 0.4234294593334198], [-0.30008795857429504, 0.06164686009287834, -0.10050248354673386], [-0.3570099174976349, 0.36854249238967896, 0.36377111077308655], [0.21708621084690094, 0.26695358753204346, -0.13835559785366058]], [[0.1974157691001892, 0.37905749678611755, 0.1272275298833847], [0.1043219119310379, -0.13385239243507385, 0.2932341396808624], [-0.371310830116272, 0.3311363756656647, -0.3789260685443878], [-0.3146451711654663, -0.16095416247844696, -0.42461133003234863]]], [[[-0.41887587308883667, 0.03186585381627083, -0.3715369999408722], [0.41276106238365173, -0.18779104948043823, -0.1453564465045929], [0.45082172751426697, 0.11638862639665604, -0.2215687781572342], [-0.2741316258907318, 0.018518149852752686, 0.2093181312084198]], [[-0.27721214294433594, -0.3291841149330139, -0.05789273977279663], [0.1622844785451889, 0.103627048432827, 0.1496361941099167], [-0.13867929577827454, 0.13518469035625458, 0.14731721580028534], [-0.4108183979988098, -0.16201674938201904, -0.37629497051239014]]], [[[-0.008051677606999874, 0.2527591586112976, -0.13505643606185913], [-0.30931198596954346, 0.3694155514240265, 0.17456436157226562], [0.08721370995044708, 0.02420862950384617, -0.25983765721321106], [0.4064617156982422, 0.1059492900967598, 0.14997358620166779]], [[0.18376287817955017, 0.12364903837442398, -0.13710446655750275], [0.34246259927749634, 0.3495101034641266, 0.2750055193901062], [0.4473891258239746, 0.3972136378288269, 0.32581937313079834], [-0.3953281342983246, -0.2989553213119507, 0.27867576479911804]]]]}